<?xml version="1.0"?>
<opencv_storage>
<opencv_ml_nbayes>
  <format>3</format>
  <var_count>5</var_count>
  <var_all>5</var_all>
  <cls_labels type_id="opencv-matrix">
    <rows>3</rows>
    <cols>1</cols>
    <dt>i</dt>
    <data>
      0 1 2</data></cls_labels>
  <count>
    <_ type_id="opencv-matrix">
      <rows>1</rows>
      <cols>5</cols>
      <dt>i</dt>
      <data>
        44 44 44 44 44</data></_>
    <_ type_id="opencv-matrix">
      <rows>1</rows>
      <cols>5</cols>
      <dt>i</dt>
      <data>
        48 48 48 48 48</data></_>
    <_ type_id="opencv-matrix">
      <rows>1</rows>
      <cols>5</cols>
      <dt>i</dt>
      <data>
        32 32 32 32 32</data></_></count>
  <sum>
    <_ type_id="opencv-matrix">
      <rows>1</rows>
      <cols>5</cols>
      <dt>d</dt>
      <data>
        38.607194721698761 32.671766102313995 0.00096383215637985131
        7483.6028289794922 23232.</data></_>
    <_ type_id="opencv-matrix">
      <rows>1</rows>
      <cols>5</cols>
      <dt>d</dt>
      <data>
        19.391781985759735 0.6782744349911809 2.7430450543761253
        8139.3340454101563 25300.5</data></_>
    <_ type_id="opencv-matrix">
      <rows>1</rows>
      <cols>5</cols>
      <dt>d</dt>
      <data>
        13.492282658815384 3.8263380154967308 0.00027069306580074226
        5351.0230102539063 16869.5</data></_></sum>
  <productsum>
    <_ type_id="opencv-matrix">
      <rows>5</rows>
      <cols>5</cols>
      <dt>d</dt>
      <data>
        33.90515644689566 28.717732726567835 0.00084759811570219909
        6566.7539272277018 20364.960745483637 28.717732726567835
        24.345158543375792 0.00071909748319372248 5557.495871255609
        17217.544788390398 0.00084759811570219909 0.00071909748319372248
        4.7136925199837234e-08 0.16384615086764259 0.50742489871007734
        6566.7539272277018 5557.495871255609 0.16384615086764259
        1273312.1011832987 3950976.8088607788 20364.960745483637
        17217.544788390398 0.50742489871007734 3950976.8088607788
        12279869.5</data></_>
    <_ type_id="opencv-matrix">
      <rows>5</rows>
      <cols>5</cols>
      <dt>d</dt>
      <data>
        7.8354011485629851 0.27395065752765335 1.1089265158526094
        3288.4880164339747 10219.048247054219 0.27395065752765335
        0.0096199825404940445 0.038689804657153 115.00633378295635
        357.66975516313687 1.1089265158526094 0.038689804657153
        0.15725100752992205 465.29028637112458 1444.4276286587119
        3288.4880164339747 115.00633378295635 465.29028637112458
        1380675.0560070574 4289609.4353256226 10219.048247054219
        357.66975516313687 1444.4276286587119 4289609.4353256226
        13340676.25</data></_>
    <_ type_id="opencv-matrix">
      <rows>5</rows>
      <cols>5</cols>
      <dt>d</dt>
      <data>
        5.6894359055195531 1.6137682708533303 0.00011350276315689556
        2256.3309676468289 7112.1631300151348 1.6137682708533303
        0.45787532238097656 3.1756881564531151e-05 639.96521612031938
        2016.7619542814791 0.00011350276315689556 3.1756881564531151e-05
        1.1091823235214866e-08 0.044479907963063205 0.14230720835934463
        2256.3309676468289 639.96521612031938 0.044479907963063205
        895219.73362362245 2820696.6168365479 7112.1631300151348
        2016.7619542814791 0.14230720835934463 2820696.6168365479
        8894248.75</data></_></productsum>
  <avg>
    <_ type_id="opencv-matrix">
      <rows>1</rows>
      <cols>5</cols>
      <dt>d</dt>
      <data>
        0.87743624367497186 0.74254013868895441 2.1905276281360258e-05
        170.08188247680664 528.</data></_>
    <_ type_id="opencv-matrix">
      <rows>1</rows>
      <cols>5</cols>
      <dt>d</dt>
      <data>
        0.40399545803666115 0.014130717395649603 0.057146771966169276
        169.56945927937826 527.09375</data></_>
    <_ type_id="opencv-matrix">
      <rows>1</rows>
      <cols>5</cols>
      <dt>d</dt>
      <data>
        0.42163383308798075 0.11957306298427284 8.4591583062731956e-06
        167.21946907043457 527.171875</data></_></avg>
  <inv_eigen_values>
    <_ type_id="opencv-matrix">
      <rows>5</rows>
      <cols>1</cols>
      <dt>d</dt>
      <data>
        0.0032127989991298047 0.09024376051595244 11844.516717203544
        5398325.6398192653 8388608.</data></_>
    <_ type_id="opencv-matrix">
      <rows>5</rows>
      <cols>1</cols>
      <dt>d</dt>
      <data>
        0.0093702287563538194 0.11256770446281984 180366.01553131387
        942694.03979752585 8388608.</data></_>
    <_ type_id="opencv-matrix">
      <rows>5</rows>
      <cols>1</cols>
      <dt>d</dt>
      <data>
        0.026221405721540327 0.084914803238260117 59331.551838957435
        2990458.5690617044 8388608.</data></_></inv_eigen_values>
  <cov_rotate_mats>
    <_ type_id="opencv-matrix">
      <rows>5</rows>
      <cols>5</cols>
      <dt>d</dt>
      <data>
        -0.0014674827671926492 -0.0024770032212397038
        -1.1024424462982181e-07 -0.028327147771914338
        0.99959455963328758 0.00039218407065618502
        0.00066916134328327576 2.6461120873538667e-07
        -0.99959846508564398 -0.028325024503184231 0.49868042632779813
        0.8667807845133233 -0.00012144991205079252
        0.00069373655739251824 0.0028996509274427503
        -0.86669584207577843 0.49863367966627525 0.014239713555605311
        -5.1909182632598396e-06 -3.6904418494974912e-05
        0.012403322621996041 -0.0069958401265800101 0.99989860276314557
        4.1959603200707874e-07 9.9546630208705507e-07</data></_>
    <_ type_id="opencv-matrix">
      <rows>5</rows>
      <cols>5</cols>
      <dt>d</dt>
      <data>
        -0.0004486529718724843 3.0966596886562957e-05
        -0.00028356154248595941 -0.12775937642653912 0.99180505094475802
        0.00012914135718299733 -2.7888618613864264e-05
        6.7842786652173609e-05 -0.99180519014627655 -0.12775931567208412
        0.84265210827709325 -0.05426044162463782 0.53571720592776062
        7.7554106395879909e-05 0.00054603038657802954
        -0.38400323083775434 -0.75799656130890181 0.52724067720160683
        7.1696746318352356e-06 1.6228552967140335e-06
        0.37746354149156836 -0.64999770444354232 -0.65956368802955823
        2.1632529935655032e-05 5.2583099260783403e-06</data></_>
    <_ type_id="opencv-matrix">
      <rows>5</rows>
      <cols>5</cols>
      <dt>d</dt>
      <data>
        -0.00051578337332093397 -0.0003350912052467967
        -1.4224677681572573e-07 -0.26969049508869691 0.96294686174273891
        1.6575012545169134e-05 -5.7360029389252458e-05
        2.3627052772273905e-06 -0.96294703929608827 -0.26969055589770141
        0.77560096777892429 0.63122056943300298 -0.0018321997468005258
        -0.00018742169610122325 0.00058259957693630087
        -0.63122320348235905 0.77559945100365446 -0.0016588112145560004
        -3.5205848664360513e-05 -7.8065363820615472e-05
        0.00037397679766999455 0.0024431027846779428 0.99999694568725539
        1.8350092117391881e-06 1.7121237127016395e-06</data></_></cov_rotate_mats>
  <c type_id="opencv-matrix">
    <rows>1</rows>
    <cols>3</cols>
    <dt>d</dt>
    <data>
      -32.677751285669991 -34.947207502412489 -35.736932939529758</data></c></opencv_ml_nbayes>
</opencv_storage>
